-5.5357e-05 -0.060925 -0.029654 0.018701 -0.0053673 -0.0083863 -0.010308 0.030399 0.10584 0.014044 0.09523 0.032891 0.02066 0.038177 0.018909 -0.026835 0.035335 -0.02478 -0.032414 -0.10736 0.0055488 0.063121 -0.051613 -0.084845 -0.013738 0.0061751 0.01209 -0.086364 0.021986 0.21519 -0.082072 0.052463 -0.0015421 0.0031061 -0.036882 -0.0073315 0.061118 -0.020566 -0.039792 -0.0048127 -0.094724 -0.0069004 0.053725 0.088861 0.069475 0.076678 -0.12215 -0.067222 0.002212 -0.044736 0.024639 -0.0010347 -0.092841 -0.039127 -0.085465 0.067975 -0.063058 0.062658 0.069147 0.013322 0.0091335 -0.11488 0.093268 -0.019463 -0.039062 0.091341 0.022113 -0.073244 0.13712 -0.030148 0.044543 0.1602 -0.019176 -0.0098828 -0.044786 -0.066194 -0.067103 -0.025299 0.097605 -0.13467 -0.076664 0.011075 0.09251 -0.093198 0.14576 -0.094651 -0.0080403 -0.0088035 -0.037913 -0.032673 0.076342 0.077625 0.039851 0.058067 0.16644 -0.006328 -0.10444 -0.017318 0.023398 0.064399 
6.7265e-05 -0.11998 -0.028076 0.04994 -0.042688 0.00067126 0.048259 -0.015066 0.15581 -0.016412 0.10654 0.064026 -0.027018 -0.01187 -0.016612 0.0065868 0.0060441 -0.024137 0.019996 -0.088342 -0.00082682 0.061868 -0.040922 -0.0021505 -0.026771 0.0396 -0.0034343 -0.06021 0.084317 0.11917 -0.071951 0.052533 0.029213 0.023289 -0.065519 0.0030008 0.064237 -0.057722 0.021608 -0.015274 -0.1053 0.035252 -0.032547 0.073399 0.042815 0.072111 -0.0018064 -0.098517 0.051535 -0.064389 -0.023188 -0.02141 -0.071677 -0.10341 -0.068905 0.025791 -0.047768 0.050402 0.045172 0.02125 0.032581 -0.11376 0.0029823 -0.040256 -0.023691 0.065167 0.052242 -0.037263 0.050518 -0.029908 0.064524 0.11095 0.056654 -0.044749 -0.069421 -0.0043032 -0.019199 -0.044379 0.08927 -0.062405 -0.10955 0.047054 0.084974 -0.10836 0.165 0.0025956 -0.01723 -0.038288 0.039102 -0.016082 0.0062993 0.041623 0.027307 0.096715 0.096722 0.038248 -0.064724 0.056198 0.016308 0.061579 
-0.053059 -0.11623 -0.0068091 -0.0007328 -0.048954 -0.051107 0.039795 -0.01575 0.13969 -0.10606 0.059887 -0.0063009 0.0074031 0.013068 -0.10294 0.022427 0.05205 -0.066088 0.089775 -0.030386 -0.00060579 0.092319 -0.058381 -0.018552 -0.079419 0.091189 0.041091 -0.049398 0.079402 0.21433 -0.19987 0.082557 0.092811 0.026569 -0.18596 -0.035579 0.034121 -0.0249 0.032338 0.03294 -0.14136 0.060799 -0.062086 0.07403 0.064073 0.097487 -0.053931 -0.18959 0.065871 -0.011886 -0.010476 -0.055593 -0.060731 -0.14495 -0.088787 0.030661 -0.051499 0.02368 0.013381 0.11995 0.035662 -0.16482 0.055746 0.031047 0.009627 0.093097 0.041778 -0.028143 0.047063 -0.02299 0.03364 0.09862 0.032906 -0.025046 -0.039311 -0.034282 -0.047694 -0.043293 0.018861 -0.10767 -0.093903 0.021465 0.12595 -0.17376 0.17973 0.017717 -0.035505 -0.036416 0.039954 0.092631 0.005133 0.039237 0.055524 0.15969 0.14044 -0.0898 -0.018466 0.10014 -0.016768 0.024085 
-0.037567 -0.14387 -0.050161 0.0065509 -0.080176 -0.01486 0.04911 0.011995 0.14797 -0.063839 0.080447 0.032392 -0.0041288 -0.011925 -0.091077 -0.042818 0.086812 -0.015702 0.087131 -0.07196 -0.015997 0.12268 -0.10761 -0.030251 -0.064652 0.054986 0.060534 -0.030476 0.11237 0.15077 -0.1259 0.071454 0.092453 0.03905 -0.10663 -0.051413 0.045438 -0.022069 0.0013295 -0.0010374 -0.13875 0.086031 -0.052284 0.062522 0.043083 0.054561 -0.064711 -0.16307 0.037587 -0.022465 -0.030905 -0.027394 -0.060373 -0.12207 -0.069099 0.055658 -0.067778 0.044189 -0.0022662 0.0775 0.016092 -0.16334 0.086297 -0.00098171 -0.029836 0.096629 0.024599 -0.041885 0.068565 -0.015782 0.036562 0.093593 0.022007 -0.021036 -0.047366 -0.027566 -0.034376 -0.056577 0.055796 -0.081446 -0.13677 0.024548 0.10291 -0.12701 0.13664 0.049354 -0.03029 0.0086863 0.026953 0.041063 -0.0083756 0.019098 0.058657 0.16165 0.11 -0.040717 -0.017275 0.10449 0.017382 0.020406 
-0.030456 -0.14409 -0.02487 0.0026725 -0.073425 -0.017869 0.018085 0.018829 0.16413 -0.07867 0.077599 0.022365 -0.0079216 -0.014098 -0.082322 -0.0073401 0.043365 -0.043199 0.067893 -0.040759 0.0012753 0.119 -0.086634 -0.01595 -0.046307 0.048615 0.023924 -0.07309 0.13552 0.18258 -0.16432 0.057794 0.069242 0.035371 -0.13553 -0.065852 0.081481 -0.037271 -0.00021689 0.0093946 -0.12557 0.064633 -0.044781 0.081157 0.063496 0.081035 -0.024281 -0.15129 0.078031 -0.0087652 -0.035654 -0.026782 -0.050295 -0.12542 -0.06998 0.072048 -0.048812 0.029514 0.012026 0.062998 0.014025 -0.19172 0.11257 0.0085031 -0.02554 0.089972 0.0020305 -0.031896 0.066491 -0.036178 0.053328 0.11462 0.020154 -0.02671 -0.05136 -0.023958 -0.065594 -0.03738 0.0049165 -0.079843 -0.099309 0.026812 0.13065 -0.11085 0.16283 0.015197 -0.025868 -0.0038313 0.042788 0.069923 0.019464 0.017298 0.040723 0.19145 0.13872 -0.068408 0.0023755 0.094454 -0.01831 0.032569 
-0.020876 -0.055329 -0.07813 0.029578 -0.038579 -0.049458 0.072569 -0.0024246 0.10416 -0.032051 0.059416 0.020673 -0.00073917 0.018732 -0.060529 -0.011298 0.04468 -0.051607 -0.0055717 -0.070674 -0.054023 0.12754 -0.040238 -0.018017 0.0046371 0.038663 0.013171 -0.054162 0.094277 0.17463 -0.14539 0.04751 0.041655 0.035639 -0.14918 0.0045651 0.054931 -0.066191 0.01496 -0.0067523 -0.12043 0.037048 -0.027528 0.072389 0.018544 0.12084 -0.018045 -0.13415 0.063036 -0.064186 -0.035045 -0.019898 -0.027953 -0.092278 -0.036194 0.019872 -0.082426 0.031068 -7.7335e-05 0.12704 0.054932 -0.12984 0.038667 0.0072095 0.0045509 0.10853 -0.020924 -0.041084 0.054945 0.0036856 0.037076 0.10613 0.067149 -0.047105 -0.022437 -0.025935 -0.0044493 -0.022065 0.02544 -0.086711 -0.075612 0.018159 0.11038 -0.16845 0.17833 0.037379 -0.041383 -0.051183 0.061901 0.099716 -0.046156 0.02067 0.10165 0.09542 0.1898 -0.016868 -0.034703 0.058784 -0.062219 0.025219 
-0.03177 -0.11725 -0.044592 0.0088832 -0.062223 -0.035095 0.025094 -0.019424 0.16432 -0.071678 0.076003 0.0085533 0.018257 0.0015089 -0.070816 -0.023543 0.02637 -0.058521 0.075246 -0.032884 -0.0094324 0.10259 -0.066607 -0.01809 -0.069102 0.055083 0.0067114 -0.06568 0.11919 0.18743 -0.16365 0.078919 0.074121 0.040484 -0.1577 -0.056012 0.0796 -0.034831 -0.00040694 -0.0025039 -0.14606 0.065127 -0.031936 0.074177 0.066202 0.083582 -0.011947 -0.13798 0.087492 -0.0022973 -0.018209 -0.036253 -0.052991 -0.12488 -0.074374 0.057903 -0.057109 0.0096566 0.004037 0.075363 0.0068036 -0.17802 0.077964 0.0097915 -0.042374 0.10699 -0.0052992 -0.031179 0.057497 -0.04265 0.053379 0.1065 0.041363 -0.047543 -0.054372 -0.023288 -0.057098 -0.05748 0.010551 -0.072704 -0.086987 0.045227 0.1319 -0.13357 0.17855 0.02718 -0.023047 -0.010565 0.045705 0.058958 0.023012 0.04956 0.069203 0.17506 0.156 -0.064992 -0.0116 0.08474 -0.0027865 0.029799 
-0.044232 -0.13127 -0.024733 0.017343 -0.077299 -0.071427 0.067202 0.04599 0.16667 -0.095959 0.075286 -0.01254 -0.02045 -0.0043707 -0.084413 0.0043641 0.038414 -0.055976 0.063493 -0.0032181 -0.0095999 0.096295 -0.070665 -0.0022502 -0.068432 0.037472 0.040829 -0.06867 0.12047 0.18535 -0.14072 0.049479 0.10263 0.056379 -0.14929 -0.02292 0.070239 -0.034339 0.032867 0.0032284 -0.14234 0.077593 -0.059366 0.07914 0.075423 0.099644 -0.032776 -0.15286 0.074348 -0.029698 -0.016896 -0.035507 -0.072934 -0.13653 -0.064562 0.024299 -0.059074 0.01378 -0.0025574 0.11283 0.029895 -0.14006 0.055166 -0.018601 -0.026427 0.10712 0.0070172 -0.076594 0.030595 -0.02883 0.032993 0.11812 0.053803 -0.027372 -0.06814 -0.026927 -0.040866 -0.029208 0.035193 -0.11803 -0.10385 0.01535 0.13437 -0.13315 0.19206 0.019664 -0.034178 -0.031465 0.069301 0.097666 -0.0076006 0.056583 0.076222 0.15015 0.14006 -0.07553 -0.022215 0.11454 -0.021341 0.061943 
-0.00041625 -0.10332 -0.079149 0.040534 -0.024079 0.018617 0.020215 -0.03175 0.091809 -0.0024822 0.07408 0.054119 0.02232 0.031128 -0.045161 -0.044138 0.057861 -0.0095826 0.0063533 -0.1123 -0.042678 0.077362 -0.052113 -0.01665 0.00091378 0.04502 0.0099359 -0.065913 0.085584 0.11627 -0.11138 0.018053 0.035009 -0.030494 -0.084772 9.8237e-05 0.084019 -0.11159 -0.0021761 -0.0054304 -0.12415 0.044528 -0.0027178 0.067717 0.042932 0.070017 -0.0094137 -0.11128 0.082464 -0.024208 -0.025992 0.0039811 -0.059123 -0.10853 -0.043021 0.032491 -0.056414 0.071031 0.019133 -0.012584 0.03923 -0.14382 0.030696 -0.061273 -0.0088701 0.13338 0.023589 -0.035498 0.055747 -0.0039254 0.090737 0.14659 0.10004 -0.06573 -0.0043387 -0.0018005 -0.025203 -0.067988 0.073339 -0.044758 -0.077574 0.032157 0.11791 -0.13886 0.18572 0.020723 -0.018466 0.02128 0.035796 0.007257 0.020112 0.055118 0.054938 0.077737 0.16106 0.020283 -0.055888 0.0043887 0.016133 0.021212 
-0.011941 -0.06272 -0.032314 -0.015464 -0.055615 -0.045221 0.014413 0.019345 0.047126 -0.039774 0.0065313 0.041518 0.069207 -0.012759 -0.039291 0.043052 0.05245 0.00052961 -0.027257 -0.047083 0.028276 0.092424 -0.0088738 -0.065136 -0.0054223 0.035076 2.9936e-05 -0.0803 0.043475 0.21769 -0.057015 0.033823 0.052926 0.047623 -0.19413 -0.0006218 0.076627 -0.083581 0.010473 -0.0072871 -0.097467 0.066379 -0.01093 0.12936 0.038587 0.088434 -0.032373 -0.13707 0.092733 -0.069883 -0.012381 -0.02052 -0.061873 -0.11554 -0.077693 -0.0076035 -0.055335 -0.013298 0.012276 0.020834 0.061036 -0.14984 0.041957 0.024891 -0.060478 0.067303 0.0539 -0.056425 0.087195 -0.010228 0.019344 0.10253 0.074434 -0.043065 -0.035412 0.016001 0.0026133 -0.027879 0.05727 -0.10221 -0.068951 0.09983 0.17389 -0.13038 0.12018 0.0076587 -0.0032892 -0.070797 0.03376 0.0085183 0.040502 0.020026 0.082397 0.084005 0.12374 -0.0030625 -0.02784 -0.02255 0.041084 0.015396 
-0.048517 -0.11366 -0.014485 -0.0085827 -0.02071 -0.060651 0.041915 -0.045915 0.13752 -0.067549 0.0637 0.00092449 0.001415 0.028583 -0.098625 0.01857 0.018143 -0.071327 0.084083 -0.041488 -0.0061355 0.10812 -0.051209 -0.0059404 -0.063171 0.081271 0.034587 -0.0664 0.09012 0.19053 -0.19616 0.08482 0.042164 0.0021924 -0.19488 -0.046036 0.043632 -0.02 0.007046 0.04454 -0.12883 0.033894 -0.038878 0.055476 0.056709 0.088934 -0.049802 -0.16498 0.080769 -0.016288 -0.030223 -0.059893 -0.043399 -0.10182 -0.080308 0.04285 -0.028487 0.026264 0.041583 0.079568 0.026741 -0.18452 0.081635 0.025753 -0.016941 0.078214 0.017816 -0.016608 0.043566 -0.035564 0.046586 0.10248 -0.0019682 -0.033355 -0.071363 -0.03979 -0.061976 -0.038124 0.027757 -0.061338 -0.077914 0.011222 0.10219 -0.14502 0.16331 0.023773 -0.028737 -0.047683 0.044807 0.08424 0.01607 0.04994 0.034969 0.14174 0.12959 -0.066478 -0.039567 0.097021 -0.021704 0.022052 
-0.04996 -0.11724 -0.014347 -0.0083466 -0.018109 -0.059416 0.039609 -0.050933 0.1377 -0.065136 0.063608 0.0016383 0.0046388 0.028998 -0.097103 0.016403 0.015988 -0.070207 0.081073 -0.039865 -0.0045643 0.10634 -0.049096 -0.0064035 -0.06371 0.081892 0.032581 -0.066211 0.089907 0.19079 -0.19477 0.086142 0.040541 0.0011316 -0.19388 -0.048563 0.042568 -0.018729 0.0022408 0.048091 -0.12792 0.033323 -0.040624 0.056363 0.058865 0.086261 -0.05291 -0.16029 0.081881 -0.015166 -0.031237 -0.055282 -0.04684 -0.09927 -0.079659 0.043958 -0.027487 0.026463 0.045632 0.073284 0.02376 -0.18489 0.07949 0.023763 -0.019114 0.079018 0.018557 -0.013023 0.042424 -0.036685 0.045827 0.10292 -0.0065165 -0.03374 -0.073842 -0.039198 -0.059231 -0.037604 0.03186 -0.058327 -0.07728 0.013032 0.097933 -0.1424 0.15941 0.026036 -0.02757 -0.047845 0.042934 0.080817 0.018148 0.052369 0.033081 0.1415 0.12811 -0.062533 -0.042682 0.094479 -0.021336 0.022617 
-0.020046 -0.10009 -0.05093 0.041057 -0.001261 -0.055279 0.053918 -0.010797 0.0090574 0.0061429 0.09699 0.019277 -0.034757 -0.017993 -0.066286 -0.01073 -0.0087542 -0.0064448 0.017651 -0.078698 -0.028055 0.13448 -0.015202 0.066439 -0.056361 0.0095488 0.023129 -0.052582 0.090025 0.19105 -0.1199 0.041767 -0.0036313 -0.018875 -0.12931 -0.049415 0.068265 -0.035822 -0.049432 0.045938 -0.07485 -0.0029771 -0.00083996 0.07076 0.036533 0.11788 -0.046405 -0.14689 0.04792 -0.084324 -0.0065347 0.052894 -0.041325 -0.072676 -0.046295 0.041445 -0.075475 0.053679 0.036722 0.056933 0.064182 -0.13676 0.11324 -0.012867 -0.074868 0.10632 -0.04019 -0.04483 0.053655 -0.022624 0.048323 0.096193 0.012091 0.0095282 -0.11006 -0.054781 0.059469 -0.017847 0.04236 -0.025753 -0.091183 -0.013245 0.068229 -0.075057 0.18745 -0.039272 -0.011458 -0.071472 0.028815 0.061304 0.013346 0.063761 0.049122 0.1002 0.14317 -0.028187 0.0091802 0.063396 -0.053615 0.027624 
-0.040681 -0.083803 -0.052862 0.11108 0.062081 -0.083637 0.021001 0.058236 0.040966 0.052535 0.023883 0.042438 -0.0040521 -0.044616 -0.093236 -0.070191 0.032126 -0.027709 0.07144 -0.020513 -0.12239 0.066133 -0.099165 0.0086777 0.040585 -0.018538 -0.034243 -0.048197 0.032362 0.24374 -0.12164 0.025454 -0.076081 0.028355 -0.1127 -0.0073603 0.031924 -0.070697 -0.019901 0.11443 -0.11134 -0.051092 0.033844 0.10549 0.096743 0.061112 -0.08022 -0.14573 0.10652 -0.049492 -0.043876 -0.0016628 -0.049974 -0.019606 -0.010163 0.072786 -0.10642 -0.01565 0.064082 0.022999 0.1213 -0.066026 0.11775 0.010256 -0.040104 0.08166 0.017349 0.0085142 0.057688 0.013215 0.045632 0.19074 0.025217 0.0023593 -0.11048 -0.04926 0.058284 0.0076171 0.02331 -0.07224 -0.10404 -0.07802 0.061835 -0.098407 0.13481 -0.011188 -0.020358 -0.045852 -0.011278 0.12663 -0.020432 -0.011263 0.069741 0.048482 0.11894 -0.056489 -0.028427 0.0046728 -0.011627 0.040254 
-0.031878 -0.089405 -0.061899 0.045038 0.037891 -0.048859 0.035337 -0.003335 0.0078092 0.011591 0.091201 0.012323 -0.024489 -0.013247 -0.065054 -0.0075008 -0.0025839 -0.014707 0.0016114 -0.048465 -0.025868 0.12106 -0.016837 0.087114 -0.037122 0.0076964 0.01445 -0.078028 0.078034 0.17682 -0.10758 0.031618 -0.02176 -0.010726 -0.1433 -0.047617 0.080357 -0.02085 -0.039041 0.047167 -0.08697 -0.0069385 0.017054 0.067725 0.040864 0.1208 -0.040254 -0.14004 0.041034 -0.072607 -0.0022765 0.063419 -0.086474 -0.082221 -0.036342 0.029707 -0.077123 0.042842 0.032552 0.029615 0.082516 -0.12395 0.087978 -0.030162 -0.081514 0.10172 -0.041622 -0.051126 0.048266 -0.040885 0.019357 0.10759 0.0066064 0.0017573 -0.10584 -0.042455 0.065479 -0.02206 0.061674 -0.035333 -0.074435 -0.0010786 0.055727 -0.1046 0.16703 -0.011112 -0.015094 -0.079704 0.032413 0.048423 0.013514 0.074483 0.075423 0.085053 0.14954 -0.012007 0.01893 0.051148 -0.046491 0.012659 
0.024471 -0.094857 -0.031715 0.07241 0.050394 0.0056373 0.028127 -0.0021588 0.031689 -0.01882 0.056847 0.090028 -0.048662 0.028819 -0.02888 0.038189 -0.057389 -0.069244 -0.0045826 -0.097022 -0.10548 0.074721 -0.027604 0.020041 0.053239 0.056291 -0.025694 -0.014081 0.054972 0.12707 -0.1346 0.0085164 0.032936 -0.013968 -0.06904 -0.067904 0.03695 -0.056443 -0.0023723 0.11534 -0.075106 -0.013725 0.012548 0.036166 0.01474 0.078389 0.0086156 -0.098453 0.11855 -0.009991 -0.049561 -0.00065668 -0.078647 -0.094019 -0.025014 0.045399 -0.069581 0.073923 0.023891 -0.023938 0.063812 -0.13726 0.044683 0.0098906 -0.04455 0.049602 0.057055 -0.01691 0.093947 0.022419 0.10658 0.16978 0.059474 -0.074301 -0.071341 -0.015932 -0.031936 -0.023809 0.035312 -0.043505 -0.0060386 0.028019 0.1038 -0.091767 0.13584 0.0010693 -0.017442 0.010346 0.039533 -0.010772 -0.011152 0.039926 0.038128 0.062341 0.14894 -0.021101 -0.0048098 -0.05108 0.013988 0.029844 
0.016355 -0.082621 -0.034298 0.049512 0.014226 -0.0013828 0.0437 -0.0085112 0.04019 -0.025184 0.049728 0.096749 -0.038551 0.017227 -0.02364 0.033425 -0.063815 -0.068444 -0.00081437 -0.087017 -0.065435 0.099967 -0.038549 0.022952 0.043244 0.061458 -0.015169 -0.033445 0.053397 0.12627 -0.16068 -0.0059901 0.019117 -0.0081177 -0.10739 -0.042947 0.040001 -0.066073 0.0028009 0.051773 -0.075772 -0.0031264 0.00037553 0.055853 0.010533 0.09763 0.0042733 -0.1185 0.12003 -0.0042556 -0.057075 -0.00076879 -0.057899 -0.090741 -0.055396 0.041743 -0.050515 0.057429 0.0068912 0.010726 0.059051 -0.12833 0.056734 0.027116 -0.024918 0.045134 0.047095 -0.030633 0.078886 0.0080213 0.10511 0.15394 0.061104 -0.075386 -0.062823 -0.025416 -0.03487 -0.036426 0.035541 -0.061674 -0.026076 0.01832 0.10941 -0.09895 0.16451 -0.0022492 -0.0053007 0.0066097 0.031746 0.003554 0.009972 0.024103 0.036451 0.090039 0.11889 -0.02672 -0.0058003 -0.018665 0.0017261 0.03788 
-0.011686 -0.075935 -0.078899 0.024273 -0.045533 -0.020757 0.062388 0.034187 0.090586 -0.024121 0.079889 0.047007 -0.034775 0.021023 -0.061435 0.01839 0.049053 -0.032531 0.049268 -0.10001 -0.052384 0.11483 -0.066062 -0.0018172 -0.010581 0.034438 0.019336 -0.10237 0.10145 0.17273 -0.11012 0.015593 0.059862 0.030819 -0.10868 0.025193 0.092565 -0.080341 -0.012531 0.080197 -0.12779 0.050892 -0.023313 0.094596 0.048612 0.083723 -0.046629 -0.11975 0.031351 -0.059707 -0.0019065 -0.064914 -0.034658 -0.089724 -0.042631 0.061765 -0.086438 0.063692 -0.012935 0.089723 0.05852 -0.13654 0.052102 -0.025834 -0.01787 0.082248 -0.0017757 -0.052483 0.061431 -0.020279 0.06612 0.17388 0.05277 -0.016451 -0.033212 -0.034133 -0.022432 0.0089227 0.02644 -0.0898 -0.10615 -0.022122 0.10227 -0.12512 0.19593 -0.0010688 -0.01175 -0.047347 0.054792 0.079437 -0.011215 -0.0013946 0.055289 0.13198 0.11572 -0.034732 -0.035614 0.091888 -0.00016699 0.059398 
-0.024507 -0.063713 -0.083344 0.01733 -0.010754 -0.044936 0.059556 -0.015442 0.096559 -0.024393 0.051102 0.044037 0.00649 0.016444 -0.029572 0.0061771 0.012164 -0.059372 0.053712 -0.052769 -0.053891 0.10738 -0.053026 0.0020591 0.033719 0.060726 0.014335 -0.089065 0.071259 0.14538 -0.18173 0.039501 0.031965 0.038006 -0.11103 -0.038741 0.062071 -0.023739 0.019984 0.031656 -0.10081 -0.014373 0.0111 0.044478 0.017456 0.068562 -0.047914 -0.1281 0.075479 -0.015259 -0.035661 -0.061658 -0.055664 -0.07758 -0.056345 0.037703 -0.077424 0.0068985 -0.0017734 0.086895 0.069367 -0.13467 0.11973 0.032598 -0.010708 0.065202 -0.010039 -0.06561 0.025884 -0.011093 0.058154 0.14841 0.032925 -0.050559 -0.044102 -0.050715 -0.061648 -0.045042 0.025965 -0.048161 -0.10421 -0.043943 0.10221 -0.15799 0.18391 0.026116 -0.029164 -0.001066 0.064098 0.052059 0.036519 0.023454 0.085649 0.10661 0.17118 -0.050486 -0.047789 0.062285 0.007756 0.03505 
-0.026382 -0.08976 -0.10798 0.0543 -0.024384 -0.070995 0.034276 -0.010351 0.10474 0.015361 0.058664 0.039372 -0.017134 0.0017697 -0.070968 0.00069517 0.02957 -0.051356 0.031787 -0.071467 -0.052225 0.078654 -0.08263 -0.025174 0.0095648 0.068789 0.005471 -0.087048 0.0968 0.1744 -0.096634 -0.0031042 0.059959 0.014734 -0.11313 -0.030905 0.051797 -0.037183 0.0087605 -0.00071996 -0.10721 0.024794 -0.016814 0.07446 -0.00077388 0.095006 -0.0074042 -0.14588 0.065924 -0.047719 0.001203 -0.070636 -0.041893 -0.095668 -0.03253 -0.047961 -0.04508 0.0072077 0.026209 0.054821 0.067719 -0.14211 0.05459 0.0058281 -0.01602 0.060957 0.034023 -0.046153 0.04493 -0.0013766 0.04132 0.13763 0.053364 -0.010516 -0.077385 0.0029111 -0.036952 -0.031448 0.070165 -0.04388 -0.053495 -0.0022289 0.041476 -0.11977 0.12423 0.058839 0.0020365 -0.042728 0.052462 0.063446 0.013619 0.028134 0.10514 0.056662 0.10933 -0.002041 -0.053027 0.082045 -0.010414 0.0027342 
-0.011008 -0.045736 -0.05169 0.016121 -0.020074 -0.049709 0.03077 -0.0057008 0.098848 -0.005538 0.04062 0.068766 -0.02218 0.033973 -0.050681 0.022761 0.0069368 -0.05616 0.043786 -0.090114 -0.064466 0.11887 -0.049633 -0.016824 0.0223 0.062794 0.0024839 -0.074026 0.045168 0.16741 -0.18184 0.047287 -0.0040315 0.028796 -0.13692 -0.014531 0.056497 -0.051844 0.028219 0.030758 -0.097255 0.0028085 0.045478 0.056306 0.023285 0.10265 -0.055383 -0.14574 0.061834 -0.0015865 -0.029735 -0.062598 -0.036674 -0.051325 -0.051081 0.058728 -0.059727 0.018865 0.028949 0.042291 0.066585 -0.17174 0.11582 0.010334 0.013256 0.060294 -0.0047256 -0.026895 0.085247 -0.041967 0.061577 0.13011 0.059218 -0.026842 -0.026159 -0.074373 -0.047567 -0.050159 0.0283 -0.054942 -0.086003 -0.023834 0.090369 -0.18556 0.17641 -0.007387 -0.031976 0.0029626 0.018959 0.065847 0.014071 0.0155 0.077139 0.10447 0.16817 -0.074215 -0.043541 0.042127 -0.016771 0.045142 
-0.028297 -0.035601 -0.035288 0.026939 -0.018639 -0.036472 0.039646 0.023659 0.076805 0.024496 0.045548 0.062502 -0.023564 0.015686 -0.028935 0.032462 -0.001212 -0.033551 0.058418 -0.086948 -0.04511 0.085858 -0.067748 0.0084406 0.023981 0.062776 0.010141 -0.080214 0.045897 0.14744 -0.15167 0.062264 -0.0055573 0.03105 -0.10422 -0.016308 0.043228 -0.034052 0.02138 0.038102 -0.074424 -0.032447 0.038416 0.057945 0.01974 0.070991 -0.06024 -0.13469 0.029078 -0.01949 -0.015007 -0.063008 -0.054515 -0.043948 -0.046078 0.046877 -0.067064 0.015654 0.046195 0.04099 0.063621 -0.12947 0.12308 0.024767 -0.019184 0.055903 -3.352e-05 -0.033306 0.069543 -0.027683 0.043516 0.14378 0.032267 -0.036399 -0.063282 -0.05251 0.0002129 -0.051326 0.041482 -0.062463 -0.11145 -0.026753 0.088102 -0.15517 0.17482 -0.010081 -0.011428 -0.0085678 0.0027713 0.030659 0.024403 0.027632 0.063102 0.10611 0.13054 -0.032756 -0.035906 0.06275 0.015156 0.033161 
-0.02669 -0.042123 -0.042826 0.017137 -0.026921 -0.038917 0.037451 0.0097037 0.096942 0.027081 0.046188 0.067486 -0.0099409 0.020197 -0.047234 0.027093 -0.0019083 -0.037974 0.06069 -0.086018 -0.071915 0.09618 -0.071073 -0.01645 0.02428 0.06874 -0.0064107 -0.06801 0.066892 0.14528 -0.16336 0.036184 0.0095239 0.018794 -0.10898 -0.045236 0.047852 -0.048342 0.00034363 0.037326 -0.065205 -0.029525 0.021767 0.074776 0.011195 0.098222 -0.076417 -0.14571 0.032629 -0.021003 -0.023588 -0.055378 -0.040158 -0.036699 -0.036064 0.049038 -0.06972 0.00047896 0.03151 0.064971 0.070921 -0.1432 0.11714 0.024991 -0.0037205 0.06269 0.0013523 -0.018906 0.06741 -0.028837 0.039453 0.15761 0.025691 -0.021498 -0.054318 -0.063498 0.0042676 -0.048762 0.042102 -0.03543 -0.097421 -0.025286 0.063009 -0.16599 0.17295 0.012064 0.0060401 -0.012894 0.031073 0.055761 0.010641 0.021585 0.077449 0.096626 0.14857 -0.03812 -0.038475 0.074226 0.0018935 0.029887 
-0.059577 -0.07161 -0.035018 -0.0059346 -0.065126 -0.03424 0.046938 0.002483 0.1405 -0.053182 0.055665 0.012678 -0.014347 0.010499 -0.072393 0.012804 0.057717 -0.033635 0.089138 -0.052089 -0.010791 0.097666 -0.061439 -0.043012 -0.061005 0.078615 0.090191 -0.05202 0.0503 0.16553 -0.16343 0.076171 0.072448 0.011659 -0.16539 -0.037046 0.015716 -0.006402 0.021104 -0.0083342 -0.1083 0.052539 -0.019928 0.074264 0.05041 0.085888 -0.054854 -0.18744 0.036294 -0.017819 -0.031046 -0.045078 -0.055743 -0.10046 -0.088336 0.0093951 -0.07001 0.0092739 0.034622 0.10969 0.017191 -0.13348 0.10898 0.047672 -0.010578 0.093399 0.013379 -0.045832 0.040181 -0.018914 0.052879 0.075048 0.0084647 -0.045765 -0.056755 -0.052507 -0.0092275 -0.049981 0.034826 -0.106 -0.13066 -0.025145 0.11268 -0.17641 0.16906 -0.0072139 -0.041063 -0.012471 0.036061 0.056398 0.012474 0.048369 0.093649 0.11287 0.12565 -0.061932 -0.0095171 0.13087 0.0021806 0.019077 
0.0013519 -0.053649 -0.053437 0.0071539 -0.034318 -0.042468 0.070779 0.026978 0.10286 -0.0079944 0.075022 0.067089 -0.018895 0.033061 -0.046611 -0.0036631 0.046684 -0.059951 0.04586 -0.050982 -0.049384 0.099006 -0.046874 -0.039292 0.0069058 0.056325 0.023357 -0.03866 0.07162 0.16404 -0.12585 0.039709 0.018209 0.046205 -0.1256 -0.021509 0.042597 -0.033594 0.07289 -0.010622 -0.062459 0.023984 -0.028522 0.047432 0.064211 0.084856 -0.038367 -0.12831 0.020427 -0.018074 -0.0081678 -0.011886 -0.052021 -0.12995 -0.043396 0.026233 -0.11541 0.0095204 -0.001322 0.076855 0.079374 -0.13436 0.08416 0.01728 -0.020879 0.11035 0.015232 -0.0036607 0.051773 -0.0009584 0.034756 0.10279 0.069186 -0.048981 -0.011141 -0.039386 -0.048553 -0.033723 0.026274 -0.065428 -0.09152 -0.010563 0.11982 -0.19725 0.16335 -0.0027209 -0.0071839 -0.004554 0.04714 0.040573 -0.012945 0.015305 0.10824 0.065101 0.15682 -0.084255 -0.023144 0.088626 -0.0034196 -0.026949 
-0.036409 -0.066412 -0.031414 -0.0014207 -0.061879 -0.047262 0.040111 -0.0085514 0.13173 -0.031095 0.070302 0.015096 -0.015454 0.021134 -0.066745 -0.007375 0.039342 -0.05449 0.077026 -0.049446 -0.023858 0.084723 -0.054292 -0.025719 -0.046553 0.0723 0.067379 -0.056016 0.07141 0.17121 -0.16168 0.076905 0.056147 0.018233 -0.14778 -0.047411 0.036951 0.0010159 0.029135 5.7863e-05 -0.10918 0.03632 -0.027644 0.058658 0.064731 0.089496 -0.044094 -0.15641 0.034397 -0.010436 -0.022478 -0.049902 -0.044366 -0.11715 -0.075577 0.019727 -0.078687 0.016174 0.026003 0.10423 0.028711 -0.13456 0.10387 0.04248 -0.032612 0.11331 -0.000462 -0.026822 0.038311 -0.020212 0.051921 0.09783 0.014926 -0.047117 -0.052721 -0.043728 -0.033902 -0.044808 0.027305 -0.085867 -0.098959 -0.023568 0.10579 -0.18624 0.17131 -0.003057 -0.020949 0.0010532 0.047813 0.062265 0.011656 0.050238 0.082442 0.10984 0.14234 -0.06697 -0.02656 0.11294 0.0054499 -0.0041725 
0.024417 -0.06785 -0.062941 0.067639 0.011071 0.028131 0.059658 -0.0050411 0.081796 -0.0075893 0.078631 0.071755 -0.020018 0.038945 -0.045535 0.046796 -0.023219 -0.071648 0.016784 -0.075616 -0.036602 0.07625 -0.042591 -0.0093941 0.0064913 0.037048 0.0062426 -0.044467 0.058855 0.165 -0.14154 0.047224 0.035951 -0.0061799 -0.086005 -0.035796 0.079803 -0.060278 -0.02811 0.050792 -0.083597 -0.00087663 0.019119 0.080872 0.01715 0.11155 -0.039401 -0.13437 0.083888 -0.031402 -0.032178 -0.018991 -0.069875 -0.069281 -0.074561 0.026311 -0.072809 0.046183 0.021116 0.032167 0.027489 -0.15097 0.052793 0.023757 -0.085645 0.064101 0.02709 -0.038646 0.086887 0.0014278 0.11124 0.14216 0.026964 -0.061808 -0.062994 -0.04048 -0.025455 -0.011582 0.070662 -0.070225 -0.0399 0.028696 0.10618 -0.12676 0.151 0.007216 -0.0051753 -0.006958 0.039717 -0.0063552 0.021205 0.054712 0.025748 0.074484 0.10528 -0.012589 -0.047054 -0.0068375 0.01863 0.030884 
-0.0052898 -0.13854 -0.045133 0.076688 0.014856 0.0011386 0.065249 0.0068854 0.080722 -0.018492 0.060055 0.073154 -0.045889 -0.0077992 -0.033569 0.012393 -0.045146 -0.044264 0.0053189 -0.071291 -0.028732 0.044022 -0.060743 0.030445 0.005436 0.044454 -0.004974 -0.018474 0.07298 0.15197 -0.087761 0.044014 0.036105 0.032354 -0.037811 -0.039997 0.029407 -0.066621 0.016766 0.031074 -0.1055 -0.0076192 -0.014078 0.070443 0.020097 0.11771 0.0029891 -0.10353 0.076795 -0.052596 -0.032767 -0.019347 -0.061329 -0.12231 -0.049648 0.0079795 -0.057366 0.053253 0.020514 0.040425 0.062851 -0.13434 0.031427 -0.005195 -0.057945 0.052612 0.075322 -0.083516 0.047707 -0.012116 0.10742 0.12009 0.040132 -0.042609 -0.051277 -0.0062436 -0.02255 0.00776 0.076811 -0.055118 -0.084788 0.039075 0.098232 -0.080942 0.16511 0.017089 -0.012143 -0.0061476 -0.01009 0.00039901 0.010664 0.01367 -0.0043008 0.07432 0.094508 -0.0083258 -0.032085 -0.0018824 0.038667 0.067981 
-0.00721 -0.11846 -0.031995 0.018215 -0.050452 -0.055708 0.038874 0.00020944 0.14307 -0.074434 0.097071 0.015431 -0.04371 -0.0041651 -0.068986 -0.00054377 0.044906 -0.04677 0.050878 -0.050348 -0.0079849 0.11918 -0.049773 -0.016395 -0.026129 0.056388 0.0065836 -0.071793 0.090972 0.14098 -0.10672 -0.0061131 0.069181 0.027486 -0.12881 -0.014327 0.075259 -0.05509 0.041826 -0.020315 -0.1381 0.04759 -0.035968 0.064411 0.02807 0.10262 0.004429 -0.17888 0.076796 -0.030142 0.029545 -0.076604 -0.054768 -0.12928 -0.046397 -0.0089703 -0.035918 0.025517 -0.009653 0.085575 0.058801 -0.1557 0.050919 -0.045792 0.0026874 0.10003 0.030899 -0.045645 0.045534 -0.028706 0.064698 0.13901 0.070393 -0.025029 -0.03425 -0.020879 -0.056305 -0.068298 0.049407 -0.058685 -0.11986 0.017091 0.14706 -0.13218 0.21783 0.0002316 -0.031323 -0.037643 0.056657 0.052238 -0.002276 0.020176 0.048025 0.09284 0.14859 -0.052193 -0.035932 0.087657 -0.021323 0.044894 
-0.010681 -0.11956 -0.022636 0.014675 -0.058736 -0.061347 0.040095 0.0018148 0.15846 -0.077147 0.1021 0.017595 -0.045058 -0.0029971 -0.067568 0.010042 0.042087 -0.058416 0.053518 -0.042609 -0.0079154 0.11602 -0.059234 -0.016158 -0.035872 0.058707 0.018724 -0.073612 0.10259 0.14787 -0.11659 0.0052779 0.081568 0.048441 -0.13248 -0.022828 0.072829 -0.041284 0.037029 -0.019077 -0.14369 0.049513 -0.040878 0.06176 0.038625 0.1002 -0.0031271 -0.17185 0.073077 -0.030649 0.031665 -0.081286 -0.055792 -0.12947 -0.05353 0.0020903 -0.046272 0.021813 -0.01199 0.099873 0.055163 -0.16523 0.05486 -0.028841 -0.0089832 0.095213 0.026211 -0.041119 0.05053 -0.034447 0.05637 0.12559 0.061274 -0.022081 -0.037743 -0.024422 -0.058518 -0.058698 0.045163 -0.069223 -0.11875 0.019758 0.14179 -0.13665 0.21425 0.000299 -0.032378 -0.037004 0.062505 0.059523 -0.0046886 0.022601 0.055622 0.11454 0.14825 -0.059088 -0.031179 0.098538 -0.02437 0.053126 
0.0017335 -0.10309 -0.046514 0.024144 -0.022628 -0.019301 0.023141 0.005519 0.11954 -0.025459 0.076572 0.029434 -0.025719 0.0056574 -0.071295 0.028115 0.012176 -0.03359 0.062859 -0.078409 -0.031853 0.11098 -0.068129 0.02757 -0.023756 0.049347 0.027841 -0.064177 0.092559 0.18716 -0.11325 0.044406 0.037134 0.01406 -0.11061 -0.040242 0.084088 -0.050598 0.016484 0.020853 -0.11471 0.038514 -0.018217 0.076575 0.044875 0.081834 -0.024567 -0.16492 0.050377 -0.053838 -0.013039 -0.036933 -0.060824 -0.10922 -0.07693 0.051809 -0.055252 0.023859 0.015779 0.053584 0.056404 -0.15936 0.088119 0.025772 -0.028435 0.077409 0.030477 -0.040631 0.070759 -0.030764 0.053835 0.12319 0.049903 -0.020471 -0.049664 -0.027952 -0.033949 -0.036262 0.031676 -0.074715 -0.092896 0.019162 0.096885 -0.15163 0.17586 0.018549 -0.036966 -0.037586 0.033396 0.0631 -0.0077656 0.033695 0.058472 0.1259 0.15145 -0.063836 -0.012733 0.068057 0.0053682 0.035988 
-0.013993 -0.12832 -0.024837 0.017704 -0.065407 -0.056888 0.039355 0.0069191 0.16482 -0.081184 0.10389 0.014117 -0.043675 -0.0084165 -0.064613 0.0056352 0.039281 -0.05308 0.059511 -0.036988 -0.0061763 0.11959 -0.067416 -0.014976 -0.037739 0.055176 0.014432 -0.070091 0.10143 0.14868 -0.11129 0.0092368 0.085732 0.054352 -0.13325 -0.033166 0.074434 -0.043014 0.034077 -0.02055 -0.14229 0.052916 -0.042827 0.059378 0.037345 0.094426 -0.0049738 -0.17096 0.074167 -0.030547 0.026145 -0.07334 -0.055312 -0.11932 -0.053067 0.001941 -0.042069 0.018968 -0.016173 0.093735 0.052198 -0.16159 0.061829 -0.026707 -0.011229 0.096482 0.020789 -0.042007 0.052228 -0.027678 0.055508 0.12601 0.060964 -0.020669 -0.042772 -0.027431 -0.056917 -0.058226 0.041279 -0.0714 -0.12604 0.021053 0.14035 -0.12738 0.21123 -0.0033556 -0.033925 -0.032182 0.058739 0.059223 -0.0046325 0.019845 0.048693 0.12172 0.14726 -0.056914 -0.025582 0.096997 -0.022376 0.053117 
-0.012246 -0.11399 -0.021582 0.016778 -0.053888 -0.056865 0.044968 -7.9672e-05 0.16131 -0.077506 0.10264 0.01349 -0.048382 -0.0050023 -0.063377 0.010735 0.033877 -0.051977 0.046285 -0.038545 0.0054748 0.11332 -0.05352 -0.014153 -0.035946 0.059754 0.0017744 -0.075139 0.098081 0.14307 -0.11139 0.0023286 0.079199 0.05107 -0.13394 -0.013724 0.074053 -0.038866 0.040886 -0.024637 -0.13862 0.049518 -0.045461 0.063499 0.029053 0.11011 0.0023768 -0.17142 0.069269 -0.036608 0.025592 -0.088853 -0.058999 -0.11647 -0.054758 -0.014298 -0.034575 0.018718 -0.01079 0.10204 0.051353 -0.15287 0.04243 -0.038126 -0.0033653 0.092543 0.030148 -0.044444 0.042872 -0.037237 0.057676 0.12382 0.057325 -0.013339 -0.040817 -0.030393 -0.056039 -0.060991 0.05119 -0.071493 -0.13102 0.018136 0.137 -0.13441 0.22419 -0.007105 -0.027119 -0.049486 0.064222 0.052197 -0.0044323 0.021203 0.043899 0.10386 0.1358 -0.046725 -0.042152 0.10431 -0.028525 0.058304 
-0.012622 -0.11587 -0.019947 0.014005 -0.054836 -0.051934 0.040704 0.0014346 0.15847 -0.079612 0.10372 0.016844 -0.04959 -0.005051 -0.067616 0.01437 0.035914 -0.05605 0.048372 -0.037797 0.0032704 0.11917 -0.057316 -0.017642 -0.031207 0.059181 0.0033753 -0.073963 0.096514 0.14501 -0.11487 0.003153 0.078251 0.051101 -0.13439 -0.017432 0.071395 -0.042838 0.04122 -0.023517 -0.13822 0.051717 -0.042558 0.062435 0.027141 0.10871 0.0029749 -0.17186 0.070658 -0.035783 0.023269 -0.087586 -0.058538 -0.1186 -0.056697 -0.011873 -0.036674 0.022276 -0.011133 0.10087 0.055149 -0.15468 0.048696 -0.034408 -0.0010923 0.094266 0.035393 -0.047169 0.047251 -0.035815 0.057734 0.12497 0.056196 -0.01265 -0.039057 -0.029169 -0.057723 -0.062901 0.051532 -0.07262 -0.13108 0.018774 0.14269 -0.14217 0.22416 -0.0094912 -0.028536 -0.04886 0.063402 0.054459 -0.0072532 0.017109 0.042726 0.10204 0.13658 -0.048159 -0.042255 0.10267 -0.026869 0.052848 
-0.013177 -0.12254 -0.019955 0.019459 -0.052903 -0.049694 0.047034 -0.0012257 0.16159 -0.075474 0.10461 0.022812 -0.047295 -0.0071934 -0.065242 0.010646 0.038692 -0.052979 0.047641 -0.036604 0.0055441 0.12055 -0.058828 -0.025209 -0.01821 0.0611 -0.0053933 -0.078888 0.09642 0.13958 -0.11331 0.0028266 0.068722 0.050185 -0.12647 -0.018943 0.072436 -0.049253 0.045268 -0.025257 -0.13469 0.046281 -0.036711 0.064847 0.030408 0.10491 -0.00081197 -0.16354 0.071586 -0.034696 0.019736 -0.083317 -0.056434 -0.11633 -0.057027 -0.0057679 -0.039295 0.022944 -0.0048505 0.098644 0.057447 -0.15223 0.05259 -0.030913 1.56e-06 0.091356 0.031649 -0.041469 0.036196 -0.037801 0.06029 0.13012 0.051886 -0.014521 -0.040414 -0.030167 -0.055431 -0.060325 0.056496 -0.058923 -0.13542 0.0068753 0.13973 -0.14123 0.21327 -0.0062414 -0.031941 -0.049228 0.064624 0.047955 -0.0077775 0.0088648 0.044692 0.10046 0.1322 -0.042173 -0.046385 0.10322 -0.022722 0.049881 
-0.020966 -0.082694 -0.040428 0.022401 -0.045477 -0.046597 0.049309 -0.013611 0.15741 -0.061031 0.085872 0.014404 -0.032483 0.012578 -0.058975 0.0070255 0.0015438 -0.051872 0.064496 -0.071356 -0.022358 0.12334 -0.069865 -0.002675 -0.038974 0.060731 0.028553 -0.08746 0.08675 0.15971 -0.1553 0.054796 0.045452 0.027666 -0.14499 -0.021871 0.07882 -0.04533 0.023477 0.0040179 -0.11965 0.04871 -0.025458 0.05627 0.014835 0.10509 -0.0026795 -0.1547 0.070328 -0.044916 0.00057456 -0.067728 -0.045803 -0.092076 -0.059469 0.027948 -0.035745 0.0171 0.014444 0.092708 0.031632 -0.1381 0.089146 -0.018534 -0.030323 0.089691 -0.00012022 -0.034763 0.068747 -0.0084137 0.04483 0.12806 0.036385 -0.02263 -0.055176 -0.039976 -0.063397 -0.057041 0.030921 -0.094188 -0.10477 0.0032346 0.13688 -0.13237 0.19919 -0.016388 -0.021377 -0.041312 0.057526 0.083114 0.0010019 0.046893 0.047302 0.12514 0.13599 -0.046879 -0.047414 0.11076 -0.022938 0.051291 
0.047641 -0.067336 -0.047014 0.097764 -0.023041 0.038526 0.062624 -0.053351 0.11119 0.035366 0.072157 0.068492 -0.0077648 -0.0019989 -0.014781 0.024407 -0.042375 -0.09919 -0.029015 -0.057693 -0.053905 0.050724 -0.024241 0.00065223 0.042623 0.03188 0.0010136 -0.059757 0.039024 0.15519 -0.11413 0.023358 0.084159 0.014604 -0.048906 -0.026916 0.049406 -0.05944 -0.026965 0.089527 -0.087442 0.0075503 0.017153 0.12756 0.022394 0.11004 -0.075185 -0.078501 0.069682 -0.010645 -0.016709 0.010316 -0.046372 -0.032092 -0.06352 0.01803 -0.08977 0.072378 0.038085 0.034872 0.026705 -0.11968 0.044553 0.030798 -0.052907 0.12486 0.008964 -0.011527 0.043289 -0.0058644 0.091713 0.1662 0.0079322 -0.049554 -0.072216 -0.044596 0.038078 0.017349 0.085822 -0.092705 -0.044709 -0.01678 0.094397 -0.15226 0.14694 0.013466 -0.040368 -0.0019936 0.02758 0.008367 0.019024 0.068663 0.030423 0.084364 0.11301 0.0058002 -0.094639 0.0025174 0.02991 0.060851 
-0.046911 -0.099566 -0.0062042 -0.019735 -0.026083 -0.037599 0.044046 -0.024979 0.13135 -0.071671 0.06579 0.028357 -0.017441 0.015438 -0.080806 0.037275 0.039695 -0.040734 0.085795 -0.07068 -0.0022266 0.096104 -0.046757 0.017301 -0.041895 0.062947 0.02264 -0.059142 0.084007 0.17406 -0.15354 0.038164 0.068095 -0.0033139 -0.12386 -0.013294 0.060443 -0.044417 0.048844 0.032143 -0.11045 0.036905 -0.014889 0.095742 0.037309 0.084422 -0.0087166 -0.15468 0.058033 -0.038076 0.024807 -0.093777 -0.043325 -0.12415 -0.055052 0.069756 -0.054261 0.02383 -0.015845 0.10213 0.068948 -0.14861 0.048727 0.0070819 -0.001202 0.046569 0.050573 -0.038122 0.042134 -0.043812 0.041536 0.11174 0.049987 -0.0040574 -0.013749 -0.038278 -0.037497 -0.011944 0.0087766 -0.05528 -0.086855 0.022418 0.12722 -0.13946 0.16342 0.017004 -0.039972 -0.052568 0.03832 0.064922 0.0095988 0.014781 0.065068 0.1004 0.11123 -0.046544 -0.00011179 0.10027 -0.0050621 -0.010179 
-0.021996 -0.088849 -0.026549 0.021956 -0.044359 -0.062575 0.053751 -0.0024718 0.17161 -0.075926 0.08961 -0.0053164 -0.042092 0.0026895 -0.09942 0.016543 0.023561 -0.058276 0.065529 -0.054403 0.0060538 0.12136 -0.054921 0.01269 -0.051857 0.068589 0.014823 -0.081074 0.11325 0.16072 -0.1566 0.030312 0.063625 0.025337 -0.16415 -0.0033869 0.087158 -0.045727 0.037887 -0.021025 -0.14502 0.056153 -0.038386 0.073309 0.03219 0.13046 0.023513 -0.18794 0.081092 -0.034863 0.0043536 -0.10691 -0.04139 -0.12572 -0.062902 -0.0046153 -0.020945 0.01421 -0.012883 0.10683 0.031408 -0.16608 0.048058 -0.028081 9.662e-05 0.11297 0.0075495 -0.060489 0.055951 -0.036972 0.065431 0.10822 0.071433 -0.021777 -0.025732 -0.030828 -0.06194 -0.063906 0.011096 -0.084231 -0.12254 0.0033332 0.14404 -0.14941 0.24691 0.0087747 -0.030035 -0.052483 0.074787 0.079553 -0.017005 0.044058 0.049246 0.12924 0.13946 -0.055939 -0.025368 0.12923 -0.040237 0.048789 
-0.0088945 -0.12667 -0.028823 0.020787 -0.049922 -0.048447 0.041883 -0.0010188 0.14596 -0.072768 0.09991 0.024809 -0.043252 -0.006554 -0.070117 0.00097522 0.048316 -0.048551 0.051627 -0.046651 -0.0059903 0.12583 -0.055805 -0.027526 -0.0091622 0.058262 -0.0015271 -0.076153 0.090267 0.13766 -0.10937 -0.0043914 0.059761 0.029939 -0.1218 -0.019647 0.073412 -0.063531 0.04623 -0.021574 -0.1341 0.044512 -0.028262 0.065677 0.029614 0.098301 0.00083322 -0.16966 0.078121 -0.029085 0.022914 -0.07262 -0.052716 -0.12731 -0.049941 -0.00089629 -0.040615 0.028922 -0.0036636 0.084414 0.064049 -0.15463 0.060229 -0.037227 0.0053097 0.097735 0.032346 -0.042392 0.038239 -0.030509 0.066402 0.14336 0.062893 -0.024583 -0.034771 -0.022004 -0.055637 -0.066565 0.055158 -0.047496 -0.12602 0.005577 0.14846 -0.13957 0.20742 7.7892e-05 -0.035718 -0.039067 0.058155 0.047839 -0.0060487 0.0075438 0.048257 0.090901 0.14303 -0.046698 -0.041204 0.088908 -0.016342 0.038086 
-0.014043 -0.093637 -0.030102 0.036624 -0.028433 -0.051749 0.045767 0.010124 0.14926 -0.064738 0.088716 0.0086002 -0.043282 -0.03063 -0.082122 0.0016053 0.01955 -0.0267 0.061345 -0.068114 -0.0076442 0.12042 -0.046515 -0.0090157 -0.020587 0.04999 0.012887 -0.068195 0.10338 0.15879 -0.11311 0.013685 0.038205 0.0082206 -0.12271 -0.021517 0.074264 -0.058327 0.04302 -0.028625 -0.11143 0.048382 -0.017028 0.079532 0.034783 0.12222 0.013636 -0.18159 0.074694 -0.037681 0.001467 -0.055292 -0.055812 -0.13341 -0.047217 -0.0056048 -0.02898 0.02932 0.008946 0.074989 0.05242 -0.15035 0.048848 -0.032489 0.003511 0.088619 0.012209 -0.051968 0.063899 -0.034482 0.06786 0.13238 0.047608 -0.022805 -0.043074 -0.023145 -0.04354 -0.058158 0.037242 -0.067162 -0.11365 0.0061723 0.13393 -0.12396 0.2045 -0.0050243 -0.023576 -0.046343 0.048147 0.056026 -0.015325 0.03214 0.049585 0.11196 0.14692 -0.055621 -0.029774 0.10025 -0.02696 0.044625 
-0.017422 -0.07511 -0.075273 0.04267 -0.026139 -0.0048558 0.038723 -0.0089074 0.11512 -0.0099832 0.065858 0.016582 0.01906 0.0012513 -0.071704 -0.012341 0.040213 -0.065725 0.064808 -0.022653 -0.045588 0.09555 -0.070632 -0.015203 -0.022776 0.022029 -0.017208 -0.043225 0.11618 0.16137 -0.13289 0.055718 0.028155 -0.0063653 -0.13964 -0.012735 0.077185 -0.013511 -0.035225 0.033742 -0.11579 0.024246 -0.0047164 0.068898 0.015255 0.08774 -0.047023 -0.14566 0.076498 -0.054817 -0.0085745 -0.050236 -0.013018 -0.051276 -0.066037 0.043404 -0.083033 0.0053612 -0.0048159 0.072421 0.034901 -0.13247 0.089462 0.030202 -0.037677 0.059546 0.0016481 -0.059138 0.039875 -0.056981 0.062065 0.091219 0.015899 -0.026396 -0.081843 -0.0029153 -0.10066 -0.0076895 0.050164 -0.050932 -0.083621 -0.029958 0.10228 -0.096175 0.14006 0.076368 -0.022445 -0.068629 0.034858 0.083637 3.5239e-05 0.040749 0.036796 0.091476 0.10292 -0.010834 -0.044423 0.033896 -0.0028918 0.034851 
-0.020406 -0.077806 -0.080681 0.037768 -0.018374 -0.00074877 0.045626 -0.013167 0.11493 -0.013181 0.068742 0.0198 0.014364 -1.9542e-05 -0.067172 -0.013183 0.044505 -0.065642 0.063493 -0.02273 -0.040436 0.10125 -0.074672 -0.014519 -0.025439 0.025046 -0.0071645 -0.045433 0.11417 0.16463 -0.12901 0.049927 0.027173 -0.0031512 -0.14346 -0.01786 0.072397 -0.010629 -0.030844 0.03521 -0.11286 0.03229 -0.0070593 0.06913 0.012678 0.090369 -0.0454 -0.13863 0.085147 -0.055218 -0.016341 -0.053797 -0.012057 -0.048182 -0.063278 0.043927 -0.084221 0.0094243 -0.0042651 0.063596 0.032016 -0.12668 0.088938 0.035616 -0.03123 0.058151 0.0057389 -0.066198 0.03271 -0.0529 0.063489 0.093162 0.014057 -0.019104 -0.081552 -0.01099 -0.099108 -0.0042267 0.053485 -0.052156 -0.083815 -0.027059 0.095258 -0.10312 0.13758 0.077655 -0.027775 -0.07154 0.033156 0.08096 -0.0020077 0.044131 0.032048 0.082866 0.091702 -0.012424 -0.043595 0.029741 -0.003775 0.029915 
-0.014732 -0.079376 -0.075258 0.040208 -0.017333 -0.0062301 0.043507 -0.013502 0.12241 -0.0055729 0.070629 0.014625 0.016098 -0.00010295 -0.066927 -0.0095737 0.044469 -0.07636 0.070187 -0.022611 -0.047916 0.098179 -0.082413 -0.019425 -0.02488 0.017281 -0.0056539 -0.044743 0.10961 0.16568 -0.13191 0.053542 0.022512 -0.0031824 -0.14453 -0.014542 0.075652 -0.014202 -0.028961 0.033742 -0.1142 0.030488 -0.0047423 0.064685 0.020689 0.087392 -0.039182 -0.14446 0.076372 -0.052308 -0.015051 -0.048417 -0.0097833 -0.050645 -0.064361 0.04984 -0.078881 0.001433 -0.0028052 0.073344 0.034713 -0.12669 0.091391 0.026036 -0.037005 0.060839 0.0087156 -0.066639 0.031211 -0.056774 0.06362 0.096953 0.013216 -0.022709 -0.082012 -0.0098511 -0.1026 -0.011444 0.042702 -0.052437 -0.078566 -0.026593 0.097026 -0.10618 0.14135 0.072737 -0.023327 -0.071967 0.03252 0.081101 -0.001273 0.045237 0.035725 0.093429 0.092601 -0.011708 -0.04384 0.03043 -0.0062252 0.027305 
-0.018087 -0.107 -0.026482 -0.01649 -0.070171 -0.061104 0.037625 -0.011942 0.13714 -0.078384 0.061331 0.0089141 -0.020021 0.0077644 -0.083946 0.032146 0.031469 -0.047245 0.10414 -0.045383 -0.024055 0.10679 -0.036702 -0.020307 -0.046803 0.084669 0.046413 -0.084695 0.083571 0.15836 -0.17223 0.052451 0.074893 0.012071 -0.16194 -0.01386 0.062458 -0.022735 0.033379 -0.0018626 -0.11032 0.044528 -0.026637 0.04565 0.024742 0.11107 -0.02428 -0.18106 0.06882 -0.031912 0.0036049 -0.069621 -0.03222 -0.13417 -0.092383 0.03495 -0.047166 -0.0043763 0.0013595 0.11367 0.041157 -0.15344 0.066871 0.033924 -0.0085846 0.091119 0.025841 -0.064584 0.043164 -0.024519 0.06133 0.098879 0.057309 -0.043409 -0.061085 -0.032155 -0.056369 -0.059075 0.016016 -0.065243 -0.097896 -0.022985 0.10007 -0.15554 0.19832 0.0026339 -0.011398 -0.023315 0.088897 0.075121 0.0015237 0.038905 0.066384 0.12808 0.14009 -0.066181 -0.024626 0.13822 -0.02119 0.030629 
-0.029003 -0.067014 -0.019104 0.020381 -0.074318 -0.04145 0.046019 -0.01946 0.11036 -0.034516 0.070788 0.034192 -0.041344 0.029667 -0.069419 0.035309 0.0083831 -0.081887 0.046477 -0.07582 -0.027786 0.11904 -0.036146 0.014396 -0.023299 0.064445 0.042173 -0.052028 0.07344 0.15135 -0.13429 0.059751 0.078997 -0.00055421 -0.11956 -0.011219 0.030776 -0.043457 0.0026683 0.061477 -0.081134 0.021622 -0.037139 0.046637 0.022263 0.087736 -0.033351 -0.18084 0.051182 -0.017799 0.014449 -0.075589 -0.007649 -0.10001 -0.050727 0.025729 -0.032305 0.04091 0.017189 0.075306 0.04031 -0.15858 0.089033 0.0040839 -0.033034 0.058253 0.021597 -0.017509 0.055138 -0.014277 0.069222 0.10715 0.020323 -0.010718 -0.049993 -0.027615 -0.030817 -0.02597 0.013474 -0.080044 -0.091738 0.024648 0.095097 -0.149 0.18417 -0.0039581 -0.021257 -0.024391 0.036486 0.09519 0.0090787 0.044406 0.024918 0.1005 0.12094 -0.046686 -0.027147 0.099239 0.00073904 0.020116 
-0.016865 -0.081531 -0.063499 0.096076 -0.0093741 -0.0079982 -0.0018722 0.014718 0.066876 0.023572 0.042969 0.086001 -0.0065613 -0.00034161 -0.08507 0.024264 0.038319 -0.0071014 0.039604 -0.038308 -0.12655 0.076272 -0.04209 -0.018006 0.055335 0.025269 -0.05506 -0.044816 0.080623 0.19975 -0.12703 0.046537 0.0028912 0.032939 -0.076853 -0.011498 0.046658 -0.070845 0.036795 0.11698 -0.044469 -0.020532 -0.0018389 0.095445 0.045568 0.098561 -0.099856 -0.13807 0.040495 -0.020897 0.00051405 -0.01179 -0.030055 -0.080645 -0.013808 0.071108 -0.090899 0.0088345 -0.013076 0.044263 0.11313 -0.12852 0.090742 0.0033363 -0.02248 0.06814 0.05262 0.0060706 0.078173 -0.0058053 0.043827 0.16183 0.041546 0.043083 -0.0026405 -0.026932 0.027342 -0.0080978 0.025646 -0.039322 -0.092687 -0.029243 0.056622 -0.13528 0.15247 0.01245 -0.0072734 -0.021893 0.035593 0.049577 0.02013 -0.033008 0.056236 0.069848 0.14853 -0.028726 -0.023021 0.040275 -0.013775 0.054968 
-0.013384 -0.089583 -0.060832 0.034969 -0.031062 -0.042798 0.043546 0.0080918 0.12307 -0.029023 0.052953 0.042948 -0.0045683 0.0043588 -0.043349 -0.0064848 0.038428 -0.055439 0.053608 -0.043024 -0.039573 0.080113 -0.060657 0.015035 0.027447 0.064866 -0.015158 -0.058483 0.10921 0.109 -0.1205 0.025907 0.019687 0.052311 -0.108 -0.041002 0.062234 -0.058695 0.028076 0.0070297 -0.10469 0.013874 0.031931 0.048026 0.022084 0.068563 -0.047886 -0.11637 0.049453 -0.018511 -0.031922 -0.039929 -0.051967 -0.056663 -0.062958 0.043541 -0.080169 0.002832 0.039132 0.040938 0.076034 -0.1591 0.059205 -0.017455 -0.0027144 0.078798 -0.0096252 -0.048979 0.022218 -0.016162 0.040785 0.14335 0.018329 -0.039121 -0.069301 -0.031311 -0.017845 -0.019426 0.058934 -0.026783 -0.091021 -0.032023 0.066724 -0.14028 0.14771 0.077758 -0.022774 -0.055558 0.0343 0.050068 -0.005436 0.0028858 0.066127 0.08856 0.14519 -0.027549 -0.023019 0.042911 -0.0001525 0.036801 
-0.018168 -0.090602 -0.061685 0.032485 -0.03704 -0.040034 0.034878 0.018778 0.11354 -0.0098315 0.055675 0.050404 -0.010745 0.015879 -0.032727 0.0037277 0.036246 -0.040459 0.043475 -0.05522 -0.047518 0.078045 -0.069121 0.012424 0.020554 0.063839 -0.014471 -0.047062 0.09433 0.11376 -0.12055 0.016263 0.028979 0.031494 -0.09566 -0.045506 0.042245 -0.052301 0.0071154 0.0081002 -0.095714 0.0015426 0.039964 0.034647 0.010322 0.080414 -0.048124 -0.10328 0.052887 -0.01193 -0.023997 -0.034892 -0.051321 -0.054755 -0.058823 0.032037 -0.083545 0.013739 0.041687 0.036561 0.060968 -0.15603 0.067666 -0.0071441 -0.010682 0.074797 -0.014438 -0.039887 0.033498 -0.030981 0.049967 0.14326 0.038498 -0.039203 -0.068234 -0.037417 -0.0081008 -0.026415 0.062218 -0.047391 -0.084526 -0.034232 0.061588 -0.12307 0.13849 0.047669 -0.029575 -0.029187 0.016072 0.045841 -0.013321 0.005686 0.068433 0.081386 0.13691 -0.021542 -0.013784 0.035298 -0.0062383 0.029173 
-0.019376 -0.082404 -0.059482 0.026127 -0.037 -0.040213 0.038154 0.01078 0.113 0.0041602 0.048128 0.059278 -0.014499 0.016239 -0.039872 -0.013032 0.038947 -0.031926 0.037095 -0.057687 -0.048395 0.076202 -0.063586 0.005653 0.027513 0.054776 -0.015313 -0.053613 0.085068 0.11896 -0.10879 0.015927 0.024793 0.031187 -0.096551 -0.043524 0.048719 -0.049853 0.0052203 0.014849 -0.099958 0.0046675 0.036196 0.048903 0.021913 0.072556 -0.054744 -0.10036 0.050831 -0.020221 -0.029011 -0.03655 -0.058204 -0.05009 -0.053829 0.033216 -0.078146 0.014273 0.039269 0.036126 0.071421 -0.13989 0.062523 0.0065467 -0.024701 0.080868 0.00041406 -0.036687 0.033433 -0.020218 0.044217 0.13522 0.02937 -0.041645 -0.071553 -0.025967 0.0041359 -0.020387 0.072086 -0.038418 -0.090058 -0.022476 0.063156 -0.12341 0.12505 0.055709 -0.016009 -0.032835 0.010675 0.038627 -0.010514 -0.0018035 0.067095 0.072593 0.12985 -0.018827 -0.023092 0.040254 -0.0047167 0.034889 
-0.013052 -0.10257 -0.060766 0.039744 -0.029062 -0.022503 0.039181 0.0085432 0.1296 -0.0059645 0.048302 0.044864 -0.010007 0.014299 -0.034424 0.00054901 0.036002 -0.017318 0.037685 -0.059317 -0.064603 0.090997 -0.059813 0.0065078 0.01645 0.063957 -0.027524 -0.061374 0.11056 0.14129 -0.10874 0.037434 0.033036 0.040775 -0.074604 -0.053667 0.046673 -0.051544 0.023208 0.010199 -0.08556 0.014288 0.024854 0.032139 0.026461 0.079215 -0.045225 -0.097963 0.046263 -0.018811 -0.0085873 -0.026652 -0.050209 -0.05929 -0.053192 0.04582 -0.06821 0.0065892 0.046748 0.03935 0.065572 -0.15478 0.07048 -0.012687 -0.022663 0.075048 -0.014082 -0.031544 0.027121 -0.015464 0.04442 0.14657 0.029466 -0.032411 -0.064592 -0.030211 0.00054897 -0.028984 0.063943 -0.045177 -0.081704 -0.022788 0.054017 -0.12042 0.13055 0.055027 -0.028193 -0.031059 0.018728 0.035824 -0.010101 0.0025283 0.055485 0.077332 0.13135 -0.027357 -0.016473 0.053244 -0.013447 0.031077 
0.053077 -0.090814 -0.0076619 0.033337 -0.0053164 0.026019 -0.0031528 -0.018803 0.17642 -0.0041368 0.029572 0.041634 -0.0040719 -0.011686 0.013674 0.028801 -0.065714 -0.076874 0.03572 -0.094289 -0.023844 0.050365 -0.11117 -0.028276 -0.024695 0.078529 -0.010375 -0.096698 0.07669 0.17292 -0.075745 0.05209 0.03445 0.011587 -0.020487 -0.0084427 0.029159 -0.095718 0.061528 -0.034558 -0.10241 0.016008 0.0051783 0.1027 0.056402 0.048 0.068502 -0.13493 0.080763 -0.038635 -0.048632 -0.037093 -0.06437 -0.13081 -0.088999 0.015216 -0.033865 0.046985 0.10079 0.025502 0.041684 -0.13506 0.0096004 0.027347 -0.024412 0.054493 0.057622 -0.046791 0.062901 -0.015026 0.093008 0.1901 0.075618 -0.060472 -0.024604 -0.027344 -0.062259 -0.046461 0.02862 -0.14287 -0.012633 0.0062673 0.12176 -0.1405 0.17107 0.043226 -0.04788 -0.005058 0.0057365 0.0030392 0.0060068 0.06542 0.025155 0.11468 0.12239 -0.0043931 -0.054227 0.020424 0.088262 0.031814 
0.050068 -0.08842 -0.034126 0.038552 0.015486 0.03724 0.0083904 -0.020101 0.029414 -0.010903 0.035519 0.075985 -0.019376 0.013212 0.0019941 0.036308 -0.064393 -0.061717 -0.032003 -0.096737 -0.069097 0.072017 -0.064928 -0.01118 0.075092 0.072615 -0.026216 -0.074917 0.046198 0.12688 -0.14693 0.0097057 0.025394 -0.010602 -0.041011 -0.030262 0.031772 -0.10836 -0.00043265 0.085608 -0.057281 0.00042162 0.032031 0.05092 0.021515 0.063775 -0.009034 -0.080277 0.12356 -0.014797 -0.074674 -0.011217 -0.1002 -0.082362 -0.054438 0.044412 -0.054371 0.069139 0.032011 -0.011173 0.05017 -0.12704 0.085816 0.021587 -0.0019403 0.045718 0.035783 -0.04353 0.062753 0.0053937 0.11012 0.1768 0.083223 -0.044926 -0.016138 -0.00092323 -0.038279 -0.028369 0.0064058 -0.064474 -0.0018035 0.010479 0.096965 -0.13841 0.16198 0.039339 -0.036814 0.021797 0.01989 0.0272 0.01899 0.056307 0.069537 0.1134 0.18344 -0.013901 -0.063545 -0.034126 -0.008051 0.05085 
-0.024699 -0.12373 -0.024097 0.040741 -0.024397 -0.037464 0.029605 -0.030639 0.16278 -0.013821 0.05978 0.043838 -0.0024247 0.0071759 -0.063132 -0.011733 0.03668 -0.033538 0.029017 -0.036932 -0.027823 0.074062 -0.062867 -0.021593 0.044082 0.039699 -0.014281 -0.10978 0.12118 0.14674 -0.093333 0.04611 -0.0048907 0.027764 -0.081324 -0.0026813 0.058864 -0.06944 0.071565 0.0020926 -0.085409 0.037438 -0.00056258 0.081133 0.051511 0.068594 -0.013364 -0.08189 0.038434 -0.065623 -0.039481 -0.053381 -0.030928 -0.11259 -0.072159 0.031334 -0.049339 0.0022219 0.018361 0.043613 0.093363 -0.14092 0.053306 -0.006558 -0.014302 0.064922 0.033782 -0.061893 -0.00053978 -0.0070874 0.045473 0.099502 0.0073317 -0.015381 -0.0189 0.011151 -0.01383 -0.026668 0.060018 -0.04516 -0.085608 0.024595 0.1123 -0.15259 0.14716 0.053952 -0.021712 -0.063014 0.024654 0.022391 -0.006084 -0.0058886 0.041788 0.08784 0.10246 0.036265 -0.046253 0.034725 -0.0052838 0.032027 
-0.046475 -0.13212 -0.022164 0.0079546 -0.056032 -0.082867 0.06236 0.024932 0.14491 -0.05875 0.078016 -0.01114 -0.04554 -0.010308 -0.083847 0.010225 0.013226 -0.05218 0.087097 -0.025763 -0.020164 0.096084 -0.086187 0.017336 -0.061503 0.050494 0.049273 -0.070713 0.094116 0.17877 -0.11688 0.042016 0.079262 0.035805 -0.13704 -0.026228 0.047733 -0.02055 0.0035445 0.031422 -0.14553 0.063605 -0.042096 0.079919 0.075395 0.077516 -0.02536 -0.15532 0.06077 -0.048339 -0.015102 -0.04349 -0.078265 -0.10406 -0.066258 0.041342 -0.041304 0.02611 0.024906 0.10372 0.038346 -0.10914 0.069386 -0.0074742 -0.03368 0.091315 0.036031 -0.07257 0.030164 -0.01644 0.036678 0.11623 0.041455 -0.020058 -0.082136 -0.031915 -0.02883 -0.012784 0.044017 -0.099389 -0.099845 -0.0065531 0.11036 -0.10837 0.1655 0.013763 -0.029337 -0.027559 0.042357 0.11431 -0.0011703 0.070493 0.076043 0.15344 0.11759 -0.067269 -0.035166 0.13744 -0.030667 0.05135 
0.059466 -0.1163 -0.021943 0.02773 0.0034115 0.044491 0.0097552 -0.050242 0.11526 -0.0133 0.035998 0.059462 -0.00065473 -0.0011163 0.0096338 0.017256 -0.063036 -0.059159 -0.0080022 -0.13275 -0.039001 0.10799 -0.099447 -0.022435 0.032394 0.085171 -0.021157 -0.087004 0.06735 0.17023 -0.12252 0.038716 0.016904 -0.0060714 -0.049524 -0.032792 0.052318 -0.093989 0.02637 0.017496 -0.13089 0.0068696 0.046454 0.1003 0.026529 0.065088 0.059893 -0.10457 0.13008 -0.025677 -0.046178 -0.027652 -0.044588 -0.099629 -0.045524 0.064829 -0.04859 0.045911 0.079945 0.018609 0.022229 -0.16116 0.11098 0.063379 -0.0026116 0.046689 0.015437 -0.038261 0.057843 -0.018654 0.10983 0.20748 0.089273 -0.028298 -0.014378 -0.017739 -0.09159 -0.063937 -0.040439 -0.08406 -0.010976 0.0035258 0.14847 -0.098285 0.16411 0.030483 -0.078702 0.031886 0.022672 0.024128 0.024831 0.03219 0.030325 0.11863 0.1519 -0.017269 -0.045355 -0.0055329 0.014612 0.044002 
-0.039439 -0.12296 -0.021993 0.011908 -0.073132 -0.081549 0.050904 0.0053205 0.13589 -0.066776 0.062556 -0.018141 -0.046388 -0.023397 -0.10234 -0.0062833 0.024862 -0.058554 0.098619 -0.029232 -0.017619 0.10161 -0.0831 0.0044859 -0.052908 0.064607 0.042357 -0.044063 0.085881 0.19274 -0.11951 0.050984 0.069291 0.047732 -0.16534 -0.0464 0.041314 -0.029914 -5.6366e-05 0.031123 -0.15673 0.070208 -0.02772 0.084472 0.073246 0.083776 -0.0039133 -0.17928 0.069805 -0.031563 -0.017901 -0.069752 -0.045632 -0.096555 -0.071482 0.035471 -0.041233 0.022691 0.012299 0.10865 0.043549 -0.12792 0.090621 0.030481 -0.0166 0.093162 0.034121 -0.048562 0.058298 0.003454 0.053991 0.11751 0.036992 -0.022293 -0.066973 -0.024709 -0.032651 -0.022999 0.012688 -0.089849 -0.10897 -0.0039675 0.1319 -0.11678 0.17364 0.030159 -0.021838 -0.03115 0.025997 0.1246 -0.00087019 0.045081 0.07083 0.17059 0.14054 -0.089986 -0.014285 0.11346 -0.03959 0.035973 
0.03685 -0.13903 -0.017614 0.029536 0.0054323 0.058781 0.033196 -0.035368 0.1052 -0.035617 0.045744 0.063223 -0.011431 -0.0023774 -0.013442 0.030716 -0.044783 -0.05105 0.018984 -0.12874 -0.038097 0.11757 -0.092228 -0.025183 0.046835 0.087809 -0.012125 -0.070336 0.080995 0.18216 -0.13812 0.053418 0.045224 -0.016727 -0.03465 -0.036719 0.020201 -0.09286 0.045981 0.018028 -0.11789 0.024559 0.03338 0.088808 0.013887 0.067239 0.042205 -0.099016 0.12765 -0.021077 -0.033592 -0.033416 -0.06035 -0.13334 -0.061145 0.034945 -0.058475 0.075906 0.074527 0.041442 0.03101 -0.15967 0.094418 0.068487 0.022577 0.04229 0.045348 -0.05963 0.04341 -0.0019419 0.11632 0.2098 0.099366 -0.028491 0.013379 0.0051076 -0.096905 -0.058088 -0.041655 -0.091577 -0.019505 0.0099186 0.15059 -0.11625 0.16482 0.060184 -0.064638 0.035141 0.01082 0.028038 0.0024793 0.025108 0.021711 0.12544 0.14472 -0.036082 -0.039438 0.016522 -0.00093219 0.041029 
0.0074059 -0.025693 -0.10259 0.039477 0.0078203 -0.068326 0.0074785 -0.047069 0.10493 0.03333 0.060947 0.044414 -0.042496 -0.034303 -0.074541 0.035736 -0.0096971 -0.078691 0.054124 -0.097607 -0.026873 0.088946 -0.056446 -0.038001 0.010709 0.038106 -0.00071658 -0.11236 0.11462 0.18803 -0.14156 0.019551 -0.017535 -0.0061333 -0.1264 -0.011998 0.086887 -0.084172 -0.0040835 0.033594 -0.096177 -0.011372 0.0036459 0.12534 -0.046042 0.11343 0.0094852 -0.15669 0.061886 -0.061391 -0.050369 -0.035114 -0.042278 -0.056079 -0.0039135 -0.019375 -0.024812 0.075579 0.082347 0.09415 0.084919 -0.13068 0.0033589 -0.04275 -0.015607 0.081628 0.030994 -0.018847 0.093715 -0.021494 0.0019759 0.15785 -0.0069421 -0.019726 -0.066552 -0.018577 -0.0033792 -0.024712 0.069419 -0.024586 -0.082642 -0.016684 0.042001 -0.12245 0.14574 0.014032 -0.009547 -0.080289 0.025093 0.0026073 -0.054358 0.025905 0.026413 0.038366 0.066072 0.054912 -0.07298 0.077991 -0.035054 0.02719 
-0.028399 -0.098763 -0.030059 0.033758 -0.0056661 -0.053438 0.021321 -0.0049985 0.12312 -0.011384 0.054531 0.0025775 0.0090685 0.0011311 -0.07285 -0.018633 0.028584 -0.065828 0.076734 -0.032586 -0.041362 0.077407 -0.070689 -0.00021821 -0.026738 0.03601 0.019059 -0.074203 0.064626 0.19906 -0.16088 0.054715 0.0051412 0.033925 -0.13006 -0.027009 0.035016 -0.04127 0.00038645 0.028321 -0.13056 0.0067793 -0.014748 0.096195 0.10162 0.069106 -0.021177 -0.14293 0.087404 -0.027148 -0.02427 -0.038091 -0.051008 -0.098196 -0.070162 0.053869 -0.07543 -0.004943 0.042961 0.068448 0.047528 -0.11739 0.091168 0.022359 -0.037128 0.11271 -0.0064794 -0.03402 0.048575 -0.031499 0.052251 0.12506 0.033309 -0.04046 -0.073187 -0.047979 -0.0091245 -0.02893 0.020151 -0.096052 -0.099125 -0.031155 0.098928 -0.14591 0.19234 -0.0074016 -0.031275 -0.026332 0.030152 0.0798 0.0090003 0.039877 0.07714 0.11933 0.1568 -0.062722 -0.032116 0.07344 0.0059539 0.02784 
0.026613 -0.023494 -0.0059693 0.047634 -0.019642 -0.032743 0.053775 0.071665 0.11516 -0.0051859 0.077763 0.078557 -0.025569 0.00095473 -0.047989 0.040345 0.03861 -0.070129 0.053988 -0.12399 -0.10629 0.06133 -0.07598 0.047863 -0.037922 0.0043933 0.085984 -0.051603 0.10565 0.11014 -0.10938 0.0991 0.080193 0.10104 -0.077132 -0.036516 0.073021 0.013462 0.088755 -0.010483 -0.13853 0.041238 0.016467 0.1149 0.053551 0.032492 -0.055057 -0.099355 0.047634 -0.072202 -0.077447 -0.013324 -0.027423 -0.090438 -0.077331 -0.0088681 -0.08863 0.064831 0.015676 0.042645 0.069262 -0.08686 0.012358 -0.010508 -0.067981 0.1082 0.039573 -0.1041 0.093787 -0.061939 0.075235 0.10789 0.025557 -0.072754 -0.10413 -0.029681 0.027138 -0.027166 0.062709 -0.14274 -0.086545 -0.005004 0.090867 -0.18603 0.23011 -0.016008 -0.056131 -0.0482 0.039216 -0.02105 -0.064724 0.053258 0.070782 0.11571 0.17263 -0.010044 -0.10023 0.029977 0.062551 0.095946 
-0.027634 -0.076117 -0.011356 0.027343 -0.028342 -0.059767 0.061801 0.017755 0.16099 -0.080045 0.098493 0.0054634 -0.046452 -0.018529 -0.088129 0.013074 0.024875 -0.040298 0.071277 -0.049266 0.011999 0.11978 -0.048932 -0.01385 -0.040487 0.049441 0.025626 -0.066313 0.094029 0.17503 -0.11556 0.031147 0.055211 0.023755 -0.16052 -0.019052 0.06836 -0.040066 0.04853 -0.031108 -0.12524 0.053312 -0.027735 0.078752 0.034135 0.12677 0.018501 -0.18494 0.076585 -0.046128 -0.0035019 -0.072419 -0.056123 -0.13912 -0.069439 -0.0089727 -0.039061 0.028693 0.00087858 0.10114 0.048187 -0.14237 0.047499 -0.01209 0.0011806 0.07744 0.017633 -0.063452 0.055433 -0.048855 0.057316 0.096601 0.042042 -0.020679 -0.049304 -0.028266 -0.056559 -0.048722 0.032838 -0.085401 -0.11984 0.014667 0.14818 -0.13705 0.20282 -0.014252 -0.03432 -0.066515 0.055959 0.062005 -0.02037 0.028868 0.037312 0.11369 0.14773 -0.073644 -0.029585 0.12025 -0.027769 0.053623 
-0.021244 -0.1397 -0.083071 0.017828 -0.037918 0.01759 0.048499 0.0027183 0.10001 -0.03089 0.068749 0.052948 0.013032 -0.001572 -0.083622 -0.068715 0.10931 0.026511 0.059416 -0.12029 -0.026662 0.12789 -0.07851 -0.02694 -0.025204 0.05112 0.032518 -0.028401 0.089317 0.11588 -0.087692 0.02911 0.058107 -0.013271 -0.058491 -0.0096291 0.054929 -0.058192 0.005152 0.0010813 -0.13004 0.072892 -0.043597 0.078004 0.0087675 0.047454 -0.059474 -0.15389 0.033974 -0.028289 -0.01988 -0.018538 -0.080203 -0.13643 -0.043467 0.040782 -0.060987 0.063954 0.012897 0.028683 0.030467 -0.14828 0.052132 -0.069492 -0.0093596 0.11247 0.042485 -0.051258 0.063656 -0.012591 0.044183 0.13416 0.055658 -0.030593 -0.02817 -0.0090741 -0.020243 -0.075 0.094333 -0.040164 -0.13465 0.026059 0.10114 -0.11438 0.13349 0.075098 -0.018734 0.010715 0.016227 -0.0084513 -0.0098868 0.013748 0.043305 0.089696 0.10456 0.0081342 -0.041394 0.075646 0.044207 0.00052468 
-0.0044563 -0.13846 -0.057474 0.016239 -0.011945 0.025246 0.0017315 0.0094914 0.10627 -0.040781 0.060091 0.045618 0.013778 -0.00094879 -0.067692 -0.02521 0.052576 0.0010941 0.020168 -0.091616 -0.0047539 0.12433 -0.036139 -0.0042475 0.017106 0.040114 -0.032903 -0.091544 0.11539 0.15051 -0.13098 -0.0072593 0.010411 -0.03841 -0.083793 -0.015619 0.11255 -0.09454 0.0042658 0.017524 -0.107 0.035869 -0.029086 0.11176 0.026519 0.084499 0.0031352 -0.13277 0.093286 -0.0099232 -0.022869 -0.014299 -0.072523 -0.14684 -0.035175 0.059788 -0.029993 0.049354 0.040022 -0.011378 0.032758 -0.1852 0.078722 -0.080956 0.0047637 0.10843 0.01534 -0.039789 0.058703 -0.041988 0.072191 0.18091 0.065497 -0.042687 -0.026963 0.0032727 -0.061771 -0.053113 0.032464 -0.022279 -0.077648 0.030021 0.1421 -0.085395 0.1716 0.033517 -0.0077668 -0.0073006 0.035956 0.016271 0.031306 0.0090413 0.010647 0.10741 0.1456 -0.015083 -0.020963 0.049777 0.00072808 0.011313 
-0.0011372 -0.048787 -0.051975 0.052594 -0.05768 -0.044896 0.048991 0.025085 0.14854 -0.019331 0.13399 0.017231 -0.051524 -0.016259 -0.024228 -0.0065462 -0.014166 -0.061474 0.016616 -0.027485 -0.0012152 0.11172 -0.056979 0.020517 -0.032794 -0.0045532 0.053514 -0.062675 0.047602 0.15943 -0.069434 0.046909 0.03047 0.038767 -0.10579 -0.030284 0.075647 -0.027344 0.0020502 0.0043763 -0.096853 0.014767 -0.032092 0.08054 0.036769 0.082999 -0.05494 -0.10554 0.044794 -0.051458 -0.053557 0.032958 -0.023517 -0.056826 -0.060042 -0.0034358 -0.08624 0.032347 0.039219 0.062756 0.023991 -0.12075 0.083765 0.00066928 -0.067596 0.11068 -0.060624 -0.038846 0.038818 -0.010369 0.029948 0.092033 0.0037015 -0.018068 -0.078662 -0.04952 -0.01457 -0.036685 0.039092 -0.097246 -0.1301 -0.028575 0.099418 -0.13655 0.15362 -0.041904 -0.026265 -0.018164 0.054665 0.050782 -0.04045 0.039999 0.0355 0.065588 0.11008 -0.012565 -0.065048 0.062587 0.012742 0.038285 
-0.0055943 -0.053633 -0.042282 0.039792 -0.059252 -0.069946 0.052914 0.025466 0.15991 -0.019589 0.13017 0.022467 -0.049808 -0.010996 -0.030556 -0.01944 -0.0040212 -0.070899 0.021118 -0.022695 -0.0040914 0.11476 -0.04784 0.0071892 -0.030692 0.0004642 0.054016 -0.044506 0.058412 0.16208 -0.067197 0.037904 0.025786 0.049022 -0.11282 -0.029458 0.064516 -0.026075 -0.0022073 -0.0019851 -0.097041 0.008928 -0.048745 0.070638 0.046404 0.085964 -0.047671 -0.10267 0.043049 -0.052568 -0.048041 0.019997 -0.030537 -0.061963 -0.048137 -0.0045999 -0.083587 0.030476 0.032543 0.066138 0.021506 -0.11746 0.06667 -0.010762 -0.051207 0.1154 -0.049468 -0.020038 0.044106 -0.019778 0.030927 0.090092 0.0018172 -0.031622 -0.06828 -0.047874 -0.024069 -0.038597 0.040089 -0.087114 -0.1303 -0.030372 0.093052 -0.13371 0.15842 -0.031585 -0.0082563 -0.020202 0.049499 0.053864 -0.052811 0.036423 0.039056 0.073243 0.11407 -0.038017 -0.058975 0.085045 -0.0065078 0.014922 
-0.030565 -0.12862 -0.05712 0.014864 -0.04612 0.0090723 0.060394 0.0019069 0.1416 -0.040919 0.082708 0.045778 -0.0014294 -0.0035323 -0.070716 -0.039537 0.080966 0.0095553 0.049135 -0.089876 0.0029353 0.11496 -0.083923 -0.021389 -0.045733 0.058572 0.020338 -0.038989 0.10426 0.12233 -0.099014 0.043762 0.079901 0.039259 -0.075051 -0.0087631 0.054112 -0.024132 0.0062505 -0.0097061 -0.1318 0.074801 -0.062737 0.07497 0.012422 0.067662 -0.058425 -0.14043 0.021861 -0.041914 -0.023996 -0.048896 -0.086898 -0.10914 -0.061129 0.025536 -0.0561 0.046587 0.0086488 0.067717 0.01731 -0.14301 0.034346 -0.051545 -0.020965 0.095829 0.039954 -0.048289 0.0566 -0.031707 0.031264 0.10291 0.02966 -0.0057737 -0.042357 -0.029879 -0.022695 -0.059218 0.094302 -0.068391 -0.15665 0.027489 0.083993 -0.1205 0.15379 0.053575 -0.011024 -0.017988 0.035355 -0.003479 -0.013745 0.016423 0.035102 0.11291 0.081583 0.014499 -0.053898 0.11134 0.023744 0.03216 
-0.01875 -0.12384 -0.025718 0.012464 -0.025768 0.013039 0.022788 0.007657 0.16103 -0.053055 0.079664 0.036872 -0.0055866 -0.0036318 -0.052255 0.0088605 0.02109 -0.018689 0.01082 -0.054246 0.032275 0.10748 -0.048064 0.00063246 -0.014967 0.051272 -0.041875 -0.098644 0.13242 0.15525 -0.14127 0.016317 0.044769 0.034422 -0.10306 -0.013799 0.10506 -0.045089 0.005829 0.0013138 -0.11191 0.042528 -0.056219 0.10397 0.02942 0.10733 -0.0024218 -0.11717 0.070544 -0.03013 -0.028025 -0.055248 -0.082303 -0.10929 -0.059647 0.037348 -0.02692 0.02782 0.031343 0.045119 0.01496 -0.17407 0.052053 -0.055753 -0.01228 0.086687 0.014982 -0.037104 0.049845 -0.064209 0.051853 0.13406 0.02974 -0.0082508 -0.046013 -0.025839 -0.060426 -0.034502 0.039298 -0.061902 -0.11332 0.031488 0.11468 -0.096777 0.19442 0.0094391 0.0012951 -0.04357 0.059268 0.020154 0.021585 0.013131 0.003338 0.13639 0.1104 -0.0040169 -0.039906 0.10025 -0.021726 0.052295 
